#ifndef _TEST_WEIGHTS_H
#define _TEST_WEIGHTS_H

#define CONV_BIAS {-18, 2, 7, -22, 6, 0, -11, 17, -8, 22, -2, -21, -12, 9, 5, -20, 1, 11, 2, -10, 19, 16, 9, -9, 3, 11, 1, 22, 22, 24, 5, -11, 12, 14, -16, 10, 13, 15, 3, 4, -2, -23, -8, 21, -19, -17, -16, -2, 5, 23, 24, 0, -10, -24, 9, 8, -5, 7, 16, 7, -13, -1, 23, -17}
#define IM_IN {30, 35, 62, 72, 114, 79, 1, 53, 21, 8, 101, 81, 34, 2, 60, 118, 39, 27, 126, 12, 53, 73, 73, 83, 4, 70, 70, 95, 71, 0, 70, 83, 72, 66, 127, 64, 49, 106, 86, 71, 119, 56, 115, 95, 30, 85, 23, 62, 89, 9, 46, 42, 89, 33, 56, 110, 94, 92, 5, 49, 28, 82, 14, 105, 65, 41, 89, 32, 17, 91, 23, 14, 87, 124, 64, 79, 43, 62, 84, 35, 117, 53, 77, 62, 126, 123, 3, 97, 9, 46, 91, 82, 96, 120, 30, 18, 79, 97, 43, 26, 93, 74, 69, 50, 23, 33, 73, 49, 46, 23, 11, 46, 96, 0, 47, 60, 60, 61, 123, 53, 91, 52, 102, 31, 50, 27, 11, 126, 72, 124, 27, 33, 16, 30, 44, 43, 56, 22, 86, 116, 67, 111, 66, 123, 76, 38, 107, 57, 4, 53, 75, 90, 31, 30, 18, 98, 122, 91, 123, 34, 56, 42, 40, 98, 119, 101, 11, 41, 101, 4, 20, 68, 0, 41, 45, 72, 84, 43, 77, 48, 9, 121, 53, 94, 48, 15, 20, 108, 47, 62, 29, 84, 107, 79, 43, 89, 73, 11, 0, 1, 43, 20, 24, 95, 66, 124, 83, 60, 7, 54, 33, 109, 25, 53, 47, 107, 9, 30, 70, 20, 125, 51, 22, 15, 15, 41, 38, 92, 109, 70, 27, 59, 57, 113, 90, 33, 28, 97, 34, 43, 48, 19, 107, 32, 86, 91, 108, 42, 42, 116, 37, 124, 103, 92, 45, 22, 10, 86, 117, 61, 8, 48, 33, 19, 125, 25, 89, 49, 68, 82, 82, 89, 58, 119, 75, 75, 106, 3, 65, 112, 39, 112, 6, 94, 76, 60, 41, 90, 11, 12, 105, 5, 44, 31, 108, 113, 88, 43, 27, 23, 118, 65, 61, 67, 72, 92, 33, 58, 24, 116, 9, 117, 100, 53, 108, 58, 96, 61, 32, 76, 127, 3, 90, 17, 114, 2, 115, 78, 90, 38, 104, 4, 85, 125, 17, 17, 64, 107, 92, 92, 91, 36, 105, 1, 85, 9, 69, 41, 9, 108, 7, 40, 43, 69, 98, 16, 108, 28, 114, 26, 49, 6, 24, 107, 55, 41, 68, 36, 20, 25, 95, 47, 79, 3, 50, 124, 22, 51, 76, 123, 114, 27, 67, 66, 106, 120, 26, 62, 81, 39, 13, 21, 71, 89, 93, 5, 17, 102, 92, 35, 124, 52, 47, 38, 65, 87, 9, 56, 102, 3, 39, 53, 80, 76, 117, 51, 53, 30, 112, 124, 56, 110, 57, 20, 13, 46, 115, 59, 42, 22, 105, 66, 91, 113, 44, 73, 119, 101, 19, 115, 79, 85, 47, 58, 125, 25, 63, 84, 99, 4, 38, 126, 5, 34, 114, 95, 111, 24, 81, 48, 90, 69, 125, 125, 55, 75, 97, 56, 22, 83, 34, 73, 100, 81, 32, 18, 69, 8, 95, 11, 49, 31, 52, 76, 41, 42, 11, 66, 20, 21, 42, 20, 2, 77, 34, 116, 30, 3, 58, 84, 122, 11, 115, 119, 22, 78, 98, 116, 42, 13, 26, 3, 86, 60, 43, 25, 92, 118, 38, 108, 121, 120, 50, 85, 126, 6, 10, 68, 92, 103, 32, 88, 102, 88, 41, 95, 23, 59, 57, 55, 125, 116, 12, 124, 55, 50, 113, 80, 14, 46, 6, 38, 66, 18, 84, 120, 119, 86, 28, 79, 1, 22, 10, 35, 66, 78, 28, 110, 48, 71, 118, 86, 127, 26, 0, 64, 27, 22, 54, 112, 0, 95, 122, 48, 126, 42, 0, 4, 73, 11, 62, 115, 125, 16, 41, 52, 39, 3, 69, 106, 77, 10, 79, 49, 73, 47, 48, 47, 33, 38, 115, 22, 1, 57, 33, 53, 115, 50, 27, 108, 62, 66, 77, 4, 53, 108, 108, 93, 118, 44, 0, 68, 61, 106, 59, 16, 42, 4, 49, 32, 120, 22, 61, 101, 81, 75, 13, 28, 38, 23, 15, 107, 2, 117, 50, 15, 2, 124, 74, 55, 17, 123, 21, 77, 126, 32, 24, 121, 98, 84, 88, 65, 97, 89, 99, 116, 87, 106, 104, 6, 29, 100, 93, 58, 47, 17, 49, 86, 28, 49, 99, 66, 25, 0, 68, 69, 43, 69, 115, 107, 91, 6, 123, 43, 84, 59, 67, 18, 5, 50, 63, 74, 83, 96, 100, 108, 86, 13, 74, 75, 69, 27, 31, 114, 30, 32, 72, 38, 75, 15, 21, 68, 119, 6, 89, 85, 18, 5, 97, 52, 62, 110, 19, 15, 95, 74, 2, 122, 127, 56, 84, 37, 6, 82, 91, 78, 12, 29, 83, 93, 96, 31, 74, 75, 0, 71, 77, 24, 64, 92, 86, 52, 11, 123, 76, 41, 118, 75, 25, 91, 80, 114, 124, 86, 8, 104, 97, 20, 100, 59, 63, 57, 107, 23, 50, 37, 36, 26, 89, 121, 0, 16, 48, 72, 88, 34, 26, 15, 116, 30, 51, 62, 96, 127, 111, 44, 84, 74, 67, 83, 1, 125, 36, 108, 80, 95, 51, 6, 61, 21, 58, 48, 124, 108, 124, 70, 39, 47, 43, 44, 98, 62, 66, 95, 66, 94, 34, 127, 37, 105, 5, 65, 85, 115, 3, 103, 57, 64, 70, 94, 115, 31, 78, 106, 10, 6, 9, 79, 39, 55, 98, 76, 54, 19, 103, 117, 118, 18, 84, 72, 77, 120, 81, 84, 42, 9, 89, 28, 73, 91, 109, 113, 118, 95, 122, 9, 125, 64, 22, 57, 115, 15, 41, 16, 31, 72, 8, 0, 122, 106, 52, 120, 91, 29, 127, 119, 98, 42, 2, 73, 27, 77, 115, 71, 65, 101, 73, 43, 122, 60, 26, 71, 20, 88, 117, 68, 28, 66, 14, 26, 97, 56, 114, 46, 13, 102, 35, 117, 103, 7, 73, 107, 107, 42, 30, 87, 63, 18, 54, 78, 20, 112, 10, 75, 49, 72, 15, 39, 55, 14, 72, 81, 5, 111, 62, 37, 65, 27, 91, 35, 26, 33, 44, 72, 109, 64, 43, 40, 63, 25, 38, 102, 120, 40, 64, 89, 98, 90, 89, 47, 60, 33, 67, 11, 29, 111, 102, 63, 122, 88, 74, 73, 106, 51, 96, 122, 12, 116, 102, 30, 52, 29, 77, 68, 102, 72, 71, 64, 82, 101, 35, 80, 45, 74, 68, 73, 108, 126, 28, 98, 39, 44, 121, 114, 89, 103, 62, 61, 76, 73, 81, 70, 121, 60, 84, 18, 16, 53, 39, 18, 77, 79, 5, 53, 7, 69, 43, 4, 84, 83, 78, 102, 76, 0, 21, 85, 42, 75, 10, 120, 59, 19, 35, 55, 4, 2, 71, 82, 85, 81, 33, 8, 68, 105, 93, 92, 64, 127, 38, 109, 66, 38, 43, 117, 87, 20, 39, 103, 92, 48, 79, 24, 28, 23, 28, 97, 84, 21, 8, 30, 66, 3, 0, 45, 48, 74, 89, 124, 113, 110, 94, 69, 107, 65, 98, 9, 104, 53, 19, 36, 21, 96, 11, 73, 30, 125, 56, 40, 4, 47, 115, 15, 102, 17, 9, 104, 123, 19, 58, 43, 6, 100, 106, 116, 11, 8, 60, 20, 82, 63, 49, 125, 64, 4, 79, 51, 10, 75, 85, 6, 6, 74, 105, 101, 96, 86, 39, 18, 30, 48, 94, 16, 32, 102, 82, 7, 44, 58, 86, 127, 87, 43, 110, 120, 97, 44, 74, 48, 64, 13, 54, 4, 123, 70, 14, 84, 43, 23, 10, 103, 59, 62, 69, 13, 77, 16, 118, 117, 6, 115, 41, 110, 54, 31, 46, 125, 13, 97, 117, 106, 26, 63, 33, 82, 47, 15, 81, 61, 52, 119, 118, 28, 5, 105, 120, 38, 64, 25, 121, 60, 3, 113, 16, 30, 53, 121, 69, 34, 22, 93, 77, 15, 113, 6, 10, 81, 23, 78, 54, 82, 119, 49, 95, 120, 3, 116, 27, 103, 104, 15, 124, 46, 13, 86, 8, 90, 109, 54, 6, 70, 30, 99, 53, 114, 108, 125, 23, 89, 123, 32, 88, 73, 56, 103, 67, 50, 3, 22, 23, 73, 114, 55, 50, 87, 124, 40, 117, 121, 45, 5, 46, 40, 85, 40, 91, 86, 98, 109, 107, 71, 117, 103, 36, 64, 79, 9, 98, 93, 124, 85, 96, 3, 110, 103, 4, 82, 98, 97, 15, 31, 107, 32, 99, 54, 115, 75, 101, 67, 83, 15, 127, 71, 65, 25, 114, 80, 59, 28, 80, 123, 6, 25, 126, 13, 15, 64, 79, 62, 122, 97, 86, 95, 81, 4, 104, 49, 81, 84, 16, 17, 109, 107, 23, 72, 116, 116, 26, 95, 116, 68, 21, 121, 45, 119, 11, 123, 9, 82, 122, 124, 58, 48, 44, 117, 16, 42, 86, 93, 37, 31, 125, 16, 90, 4, 26, 93, 46, 47, 11, 105, 45, 123, 36, 27, 91, 50, 52, 2, 58, 120, 86, 72, 65, 26, 70, 92, 113, 40, 97, 43, 29, 41, 89, 5, 74, 111, 14, 77, 23, 50, 17, 57, 68, 93, 33, 119, 60, 123, 42, 95, 93, 124, 40, 83, 60, 11, 41, 84, 51, 49, 111, 54, 121, 118, 18, 115, 29, 115, 30, 104, 64, 42, 62, 97, 59, 55, 38, 60, 50, 58, 127, 30, 80, 20, 5, 24, 23, 118, 64, 49, 57, 115, 94, 105, 28, 126, 68, 114, 59, 83, 103, 101, 82, 83, 101, 17, 37, 54, 55, 35, 111, 84, 45, 53, 56, 43, 36, 30, 72, 95, 111, 42, 101, 107, 54, 91, 90, 60, 43, 72, 120, 118, 14, 77, 99, 86, 32, 121, 18, 76, 19, 56, 90, 118, 57, 102, 119, 125, 69, 2, 24, 126, 0, 111, 21, 71, 120, 67, 106, 8, 64, 1, 88, 61, 48, 126, 89, 79, 1, 18, 15, 97, 97, 86, 108, 76, 52, 95, 51, 37, 12, 63, 110, 78, 125, 67, 32, 58, 42, 10, 127, 83, 80, 13, 63, 31, 14, 126, 113, 90, 20, 47, 2, 108, 95, 110, 61, 54, 97, 112, 17, 20, 117, 65, 86, 15, 35, 96, 81, 125, 112, 107, 79, 95, 52, 26, 119, 26, 43, 42, 42, 66, 61, 83, 73, 99, 62, 6, 75, 56, 46, 33, 55, 57, 101, 46, 77, 22, 42, 123, 119, 105, 124, 0, 47, 123, 94, 29, 122, 47, 99, 103, 115, 41, 103, 40, 65, 1, 46, 71, 26, 113, 65, 68, 53, 88, 97, 32, 94, 38, 17, 14, 58, 123, 114, 114, 62, 111, 96, 95, 109, 0, 76, 27, 86, 56, 98, 103, 3, 61, 127, 26, 0, 53, 3, 52, 8, 29, 100, 29, 125, 75, 125, 9, 65, 38, 26, 45, 58, 97, 7, 26, 76, 76, 109, 8, 19, 31, 90, 101, 98, 37, 3, 51, 113, 127, 59, 98, 64, 71, 46, 1, 115, 83, 37, 4, 101, 117, 127, 4, 5, 56, 59, 20, 67, 111, 53, 25, 14, 18, 114, 90, 4, 10, 110, 41, 126, 39, 125, 10, 104, 65, 52, 89, 94, 69, 87, 98, 123, 24, 74, 24, 31, 2, 114, 70, 105, 94, 125, 86, 53, 127, 78, 36, 89, 46, 42, 46, 36, 93, 10, 66, 121, 43, 44, 96, 123, 107, 71, 81, 44, 65, 48, 103, 124, 88, 41, 80, 40, 13, 3, 13, 106, 16, 10, 54, 118, 88, 4, 101, 120, 88, 5, 35, 120, 5, 32, 110, 110, 17, 127, 54, 30, 6, 51, 75, 109, 34, 13, 55, 21, 34, 110, 36, 82, 16, 19, 111, 109, 89, 62, 14, 90, 14, 85, 33, 13, 28, 40, 60, 77, 37, 13, 77, 76, 85, 79, 30, 43, 69, 99, 24, 60, 88, 47, 122, 113, 102, 64, 51, 48, 82, 92, 10, 102, 25, 25, 115, 110, 31, 12, 34, 40, 34, 42, 127, 125, 100, 75, 55, 60, 36, 79, 72, 20, 77, 50, 27, 99, 19, 64, 79, 94, 50, 9, 81, 40, 12, 2, 101, 46, 69, 10, 102, 107, 43, 9, 49, 62, 83, 71, 118, 4, 90, 53, 125, 93, 72, 108, 72, 73, 95, 92, 52, 29, 117, 1, 109, 25, 13, 17, 48, 66, 48, 30, 13, 111, 109, 48, 97, 59, 7, 94, 14, 41, 7, 30, 48, 0, 58, 97, 51, 37, 106, 72, 72, 14, 126, 17, 12, 55, 46, 32, 86, 70, 57, 56, 58, 50, 60, 7, 7, 51, 103, 118, 53, 44, 22, 6, 45, 68, 70, 123, 95, 123, 49, 26, 35, 90, 15, 112, 34, 88, 17, 113, 106, 51, 114, 122, 9, 21, 107, 1, 81, 40, 47, 55, 61, 44, 81, 37, 73, 126, 123, 103, 92, 41, 89, 22, 43, 127, 3, 114, 37, 51, 11, 11, 27, 113, 114, 96, 15, 117, 44, 86, 85, 47, 22, 86, 110, 66, 19, 93, 124, 92, 57, 8, 71, 39, 5, 43, 29, 110, 48, 52, 39, 96, 73, 67, 99, 58, 126, 27, 69, 91, 50, 105, 75, 69, 35, 85, 75, 98, 19, 39, 109, 90, 81, 70, 13, 36, 121, 44, 32, 53, 9, 2, 19, 12, 32, 19, 5, 111, 122, 50, 26, 64, 73, 87, 25, 3, 20, 102, 43, 74, 70, 80, 104, 46, 66, 38, 2, 8, 41, 61, 123, 55, 31, 110, 56, 118, 78, 88, 9, 26, 125, 112, 52, 99, 37, 35, 51, 56, 47, 55, 60, 100, 90, 62, 119, 4, 96, 43, 98, 13, 112, 32, 80, 107, 102, 32, 80, 101, 125, 43, 33, 114, 59, 101, 113, 78, 18, 127, 73, 65, 0, 112, 81, 63, 123, 52, 42, 18, 13, 109, 127, 1, 25, 97, 48, 67, 77, 17, 71, 72, 107, 24, 112, 103, 71, 95, 28, 102, 0, 66, 65, 50, 82, 81, 104, 108, 66, 95, 111, 103, 115, 77, 26, 25, 37, 101, 66, 32, 85, 16, 3, 47, 77, 89, 87, 21, 33, 53, 67, 52, 119, 70, 6, 3, 86, 97, 126, 58, 42, 59, 38, 13, 6, 106, 9, 45, 119, 119, 127, 99, 123, 116, 58, 68, 78, 49, 19, 121, 42, 56, 71, 13, 29, 94, 102, 6, 37, 120, 37, 17, 53, 45, 50, 79, 93, 81, 115, 66, 89, 25, 79, 29, 95, 64, 14, 67, 33, 41, 119, 3, 58, 77, 78, 111, 89, 18, 81, 83, 45, 98, 33, 56, 95, 12, 45, 12, 119, 43, 7, 53, 2, 28, 108, 73, 57, 31, 75, 119, 12, 34, 33, 8, 34, 29, 20, 85, 1, 20, 127, 105, 46, 45, 51, 84, 93, 103, 14, 42, 124, 113, 98, 65, 18, 37, 91, 28, 67, 98, 4, 119, 7, 1, 81, 25, 102, 41, 3, 65, 65, 25, 121, 43, 8, 99, 49, 58, 67, 12, 29, 74, 97, 110, 115, 77, 78, 90, 105, 8, 27, 18, 25, 9, 29, 77, 13, 12, 125, 13, 50, 84, 11, 106, 125, 15, 36, 46, 0, 23, 57, 14, 15, 28, 84, 30, 117, 21, 105, 33, 93, 3, 120, 52, 62, 21, 48, 12, 106, 28, 40, 37, 59, 17, 83, 118, 48, 87, 52, 22, 22, 16, 9, 122, 82, 124, 40, 79, 53, 91, 109, 104, 120, 48, 119, 64, 125, 8, 1, 13, 34, 75, 86, 101, 66, 33, 18, 13, 19, 95, 88, 127, 101, 85, 6, 124, 91, 56, 70, 53, 125, 36, 115, 39, 122, 14, 32, 32, 16, 97, 116, 11, 122, 85, 10, 102, 103, 12, 109, 106, 90, 112, 73, 1, 110, 65, 37, 127, 17, 79, 42, 74, 48, 12, 9, 108, 110, 70, 39, 95, 48, 67, 19, 87, 18, 57, 123, 60, 84, 23, 21, 101, 123, 91, 39, 11, 35, 15, 75, 34, 27, 11, 122, 94, 116, 48, 118, 126, 123, 2, 73, 0, 12, 63, 77, 30, 105, 27, 21, 103, 77, 27, 5, 94, 56, 113, 76, 44, 97, 112, 22, 26, 98, 23, 49, 54, 4, 2, 7, 42, 25, 74, 43, 47, 48, 110, 81, 109, 119, 34, 8, 112, 68, 7, 77, 43, 95, 86, 42, 99, 99, 124, 0, 1, 82, 62, 73, 111, 38, 119, 32, 6, 85, 2, 121, 84, 10, 30, 72, 33, 83, 95, 37, 55, 69, 67, 30, 121, 102, 46, 72, 51, 110, 11, 71, 89, 46, 20, 64, 25, 85, 17, 48, 89, 21, 66, 125, 2, 89, 127, 11, 29, 119, 29, 122, 92, 104, 109, 121, 118, 104, 122, 68, 90, 41, 90, 78, 98, 13, 91, 69, 104, 47, 91, 103, 97, 100, 20, 74, 10, 43, 41, 85, 117, 14, 103, 111, 48, 9, 5, 10, 115, 8, 97, 108, 70, 87, 36, 35, 7, 25, 72, 19, 78, 110, 34, 76, 74, 104, 76, 5, 97, 19, 9, 67, 87, 15, 90, 81, 87, 9, 2, 12, 37, 127, 18, 34, 8, 95, 115, 74, 55, 121, 90, 38, 12, 34, 41, 120, 127, 1, 85, 16, 71, 81, 6, 125, 72, 27, 110, 45, 17, 119, 23, 90, 78, 105, 55, 48, 7, 106, 118, 43, 17, 116, 94, 113, 83, 8, 78, 7, 115, 47, 43, 58, 96, 0, 28, 1, 34, 81, 29, 119, 97, 47, 18, 86, 17, 52, 22, 103, 18, 106, 126, 126, 103, 86, 37, 80, 9, 118, 75, 100, 73, 73, 97, 55, 102, 18, 65, 27, 32, 74, 7, 102, 14, 98, 71, 21, 20, 2, 20, 2, 120, 87, 42, 100, 28, 2, 98, 106, 123, 75, 121, 17, 29, 50, 68, 29, 108, 75, 116, 105, 83, 117, 71, 117, 15, 87, 24, 23, 25, 10, 50, 0, 5, 41, 82, 86, 28, 4, 72, 0, 103, 112, 77, 51, 110, 4, 5, 125, 2, 112, 46, 13, 54, 26, 15, 127, 114, 39, 49, 82, 46, 123, 11, 7, 98, 38, 34, 64, 115, 72, 115, 54, 114, 120, 31, 108, 41, 33, 13, 16, 27, 13, 127, 9, 28, 91, 51, 126, 35, 108, 50, 99, 22, 62, 2, 5, 26, 60, 116, 61, 110, 20, 78, 7, 81, 74, 28, 73, 59, 125, 38, 16, 62, 98, 53, 48, 66, 6, 0, 70, 40, 93, 100, 55, 22, 45, 76, 64, 58, 8, 24, 17, 79, 91, 110, 20, 107, 93, 66, 120, 112, 99, 60, 59, 96, 91, 20, 41, 67, 11, 84, 14, 29, 55, 81, 10, 94, 33, 94, 14, 51, 78, 42, 38, 13, 13, 100, 21, 20, 81, 10, 114, 65, 126, 31, 5, 82, 81, 60, 84, 94, 87, 50, 118, 74, 65, 71, 68, 100, 108, 92, 15, 50, 74, 80, 78, 95, 78, 13, 67, 29, 114, 5, 36, 71, 17}
#define NHWC_WEIGHT {24, 0, 0, 21, 6, -12, 1, -2, -16, 8, 12, 22, 13, -13, -18, 8, -3, 0, 0, 12, -15, -5, 3, -5, 9, 12, -16, -11, -5, 2, 23, -7, -16, -6, 1, 2, 18, 12, 14, 0, 18, 12, 9, 5, -1, 0, 22, -8, -16, 8, -11, -5, 8, 5, 16, 18, 17, -6, 19, 11, -10, -8, 8, -22, -13, 2, 6, -21, 14, -24, 10, 14, -18, -21, 7, -3, -1, 0, 24, 15, -22, -3, 8, -5, -21, -24, -13, -24, -2, -17, -17, 12, -15, -14, -6, -19, -22, -13, -16, -1, 5, -6, -7, 22, 20, 9, -17, 16, -14, -17, -21, -14, 0, -20, -20, -18, 1, -12, -19, 21, 3, 20, 0, 8, 9, -4, -19, 6, -14, -4, 0, 10, 8, -3, 23, -23, -13, -16, 16, -5, 4, 0, 21, -19, -22, -19, 7, -5, -12, 20, -9, 2, -16, 12, 10, -4, 15, -17, -20, -8, 20, -12, -22, -3, 12, 9, -20, 19, 23, 7, -5, -18, 3, -13, -14, 17, 22, 18, 24, 9, 7, 13, -1, -18, -11, 16, -13, 2, -5, 16, 21, -18, -22, 10, -6, -3, 19, 7, 22, -10, -21, 20, -22, -8, -4, -1, 22, 13, 4, 16, 11, 5, -22, 6, -2, -24, -16, 12, 18, 22, -14, -12, 17, 15, -2, 5, 19, 11, -17, 4, 17, 22, -22, -6, 8, -4, -12, 18, 2, 6, 10, 18, -1, -18, -23, -17, 22, -12, -4, -15, -3, 3, 15, -22, -18, 15, -10, 14, 0, -8, 14, 2, -14, 13, 20, 23, 10, -8, -22, 17, 7, 10, -3, 21, 8, 13, -12, -24, 13, 6, -6, 13, 24, -6, 4, 6, 3, -24, 20, -11, -10, 0, 0, -1, -8, -1, -3, -8, 2, -6, 11, -22, -4, 9, -23, -9, 4, 16, -11, 20, 2, 13, -9, 15, 5, -21, -2, -1, 11, 19, 8, 0, -4, 2, -13, -13, -21, -8, 20, -4, -17, 21, 19, -5, 0, 15, 15, -12, -20, -15, 7, 5, 7, 6, -7, 11, -16, -13, 10, 20, 24, -18, -10, 23, -13, 1, -6, -5, 5, 12, -8, -21, 18, -8, -1, 0, -9, 10, -9, -18, 14, 14, 23, 2, 3, 19, 14, -22, 5, 8, -8, 22, 18, -20, -6, 4, 20, -9, -7, -12, -10, 0, 12, 17, -11, -3, 6, -23, -19, -12, -6, -4, -11, -7, -23, -1, 23, -9, -2, -21, -19, 12, 14, -10, -23, 12, 4, -20, -20, 0, 21, 22, 6, -18, 23, 1, -11, 11, -10, 21, 0, -20, 22, -7, -23, 2, -18, -11, -14, -5, -10, -9, -10, 8, 7, 7, -20, -7, 4, -23, 16, -6, 14, -13, -19, -8, -12, 19, -7, -8, -8, 5, 5, 4, 1, -15, -4, -12, 2, -5, 22, 19, 20, -1, -24, -8, -10, -16, -12, -18, 15, -14, -1, -19, -12, -21, -17, 22, -9, 20, 10, 11, -16, 17, 12, -11, -18, 5, 15, 17, 6, 3, -22, -10, -8, 20, -2, 18, 6, -21, -16, -6, 1, 0, 14, 18, 10, -7, -16, 0, -18, -10, 24, -24, 22, 0, -13, 23, -24, 5, 13, -5, 19, 0, -15, -21, -11, -6, 21, 9, 0, 10, -2, -10, 2, 3, -8, 23, 16, -1, -3, -5, 15, -24, 21, -7, 1, 6, 12, 11, 18, -6, -12, -23, -24, -4, 0, -18, 7, -21, 23, -12, 12, -10, 4, -20, 23, -19, 15, -15, 4, 0, 12, -17, 21, 14, 16, -7, -24, 9, -1, 1, -14, -20, 0, -13, -16, 23, -17, -20, -7, -5, -19, -7, -12, 2, 24, -11, 8, -16, 23, -13, 22, 20, -20, 18, 15, 2, 20, -5, -15, 12, 11, -4, 0, 12, -15, 4, -3, -21, -3, 19, 12, -9, 11, 10, -19, -13, 16, 0, 16, -16, 2, -9, -5, 5, -19, -22, 19, -3, 6, -23, 22, -9, 9, -13, 5, 0, 15, 17, 19, 1, 9, 22, -13, 23, -15, 15, 14, 18, 15, 19, 9, 7, 20, 20, -2, -20, -9, 4, -20, -23, 2, 3, -11, -23, -23, 20, 12, 22, 2, -14, 5, 15, 12, 17, 0, -5, -24, -11, 2, 5, 3, -12, 2, -7, 9, 23, 15, -8, 15, -20, 17, 8, -14, -9, -16, -2, 13, 13, -8, 0, 15, 5, -8, -20, -5, 15, -8, 2, -2, -14, -14, 3, 20, -8, 17, 11, -11, 20, 2, 14, -9, -9, 5, 16, -14, -6, -1, -1, 7, 10, -18, 1, -12, -2, -1, -13, 7, 1, 24, 5, -3, 1, -21, 1, -20, -14, 7, 11, -15, -3, -20, -19, -7, -18, 4, 5, 13, -15, -23, -8, 4, 24, 7, 6, 19, 23, 9, 7, -10, -23, -20, 15, -11, -2, -19, 15, -1, -10, 15, 0, -15, -23, -13, -10, -2, -20, -17, 19, 2, 0, 4, -4, -16, -19, 4, 15, 11, -20, 22, -17, 5, -19, -15, 2, -19, 12, 15, -6, -17, -13, -9, 12, -6, 19, 4, 9, 23, 21, -13, -13, -18, 4, -3, -9, 6, 14, 13, 10, 20, 4, 1, 9, 7, 1, 1, 21, 16, 15, -8, -20, -14, 12, -4, 19, -7, 4, 16, 14, 23, 1, -17, -7, -3, 7, -18, 8, -13, -4, -7, -11, -7, -11, 4, 0, 12, 14, -5, -9, -22, 22, -1, 8, -24, -5, 12, 21, -4, 21, -10, -6, 6, -7, -16, 11, 4, 7, 19, -20, 18, 5, 5, -15, -17, -10, -7, 11, 19, 20, 23, 22, -2, -2, -17, -16, -21, -13, -20, -7, -5, 13, -7, 16, 3, 22, 9, 11, -24, 21, -9, -7, -2, 5, -20, 23, 13, -16, 17, -3, -9, 0, -3, 5, 23, 9, -1, -15, 8, 4, 20, -8, -10, 16, -2, -13, -6, 12, -19, -7, -2, -20, -18, 22, -8, -18, 0, -14, -5, -15, -9, -9, 21, -23, 22, -18, -7, 15, 23, 10, -23, -3, 16, -1, -12, 5, 21, 12, -22, -13, 5, 20, 21, 9, -15, 13, -22, 17, 0, 2, -10, -13, 17, -1, 0, -1, 0, -16, -20, 23, -21, -23, -8, -20, 0, 16, -5, 16, -4, -19, 10, -5, 0, -19, 20, 22, -23, -11, 17, -4, -18, 16, 2, -22, -13, -7, 11, 9, 23, 9, -5, 15, 11, 14, 19, 8, 0, 19, 6, 2, -16, 8, -19, 7, 11, 0, 24, 22, -22, -19, -2, 24, -12, -19, 2, -7, -11, 4, 8, -20, 11, -12, 4, -16, 0, -8, -8, -11, -8, 13, -5, 11, 16, -16, 21, -24, 6, -15, -9, 1, 17, -18, 16, 23, 15, 6, -21, -22, -2, 13, 14, 12, 1, -17, -3, 5, -16, -9, 11, 6, -12, -7, -6, -15, 5, -1, -2, -22, -13, 0, -10, 0, 9, 1, -12, 18, 18, -11, 17, -23, 2, 8, 24, -18, 13, -10, 22, 10, 8, 4, 9, -17, -9, 12, 24, -8, -14, -13, 8, 1, 0, -1, -5, -24, -13, 20, 15, 15, 22, 0, 6, 0, -13, -10, 20, -16, 7, -12, -3, -16, -14, -21, 3, 4, 17, -23, -16, -18, -17, 13, 20, 19, 2, 22, -4, -21, -5, -5, 2, 15, -19, 2, 22, 15, 0, -17, -2, 17, 4, 23, -13, -15, 8, -5, -13, 3, -20, 10, 1, -17, -3, 7, 1, -1, -17, 16, 0, -13, -5, 9, 18, 16, 19, 15, -21, -18, 17, -15, 9, -18, -22, 4, -20, 10, -14, 5, -1, -12, -5, -10, -4, 23, -2, 15, -4, 4, 16, 3, -21, 8, -9, 6, 14, -20, 2, -19, -8, 9, -12, -19, -17, 20, 6, -21, -19, 21, 19, -3, 6, 4, 17, -16, 18, 5, 21, -17, -3, -13, -12, -6, -6, -13, 1, 13, 22, -16, 7, 8, 0, 1, -14, -20, 0, 15, 22, 8, -4, 13, 5, -11, -12, -19, -9, 10, 0, 0, -22, 11, 4, 20, 18, 0, -6, 20, 5, 18, -7, -11, 13, 20, 10, 16, -16, 4, 5, -6, -16, 10, -11, 11, 15, 1, -3, -8, 15, -20, 19, -4, -5, 18, 17, 4, -10, 0, -7, -24, 13, -22, -20, -4, 1, -17, 18, 9, 0, -10, -20, -20, -16, 3, -1, -22, -1, -18, -8, -21, -4, -6, -2, 24, 0, 0, -23, 24, -2, -6, 23, -7, 13, -4, 2, -14, 6, -20, -14, -20, -4, -1, -16, 18, -22, 13, -15, -19, -10, -16, 22, 6, 15, -4, -24, -20, 5, -13, 13, -5, 5, -17, -15, -9, -11, -10, 4, -8, 20, 9, 10, -5, -17, -6, 17, 0, -17, -15, -8, 7, -14, 21, 3, 19, 23, -7, -9, -7, -14, -24, -4, -17, 0, 16, 3, -8, 20, 20, 23, -10, -5, 23, 7, 11, 0, 3, 1, -13, 3, 19, -15, -19, -21, 8, 22, 14, -19, 19, 9, 4, -13, 4, -7, 8, 21, 8, 14, 2, -9, -13, 5, 18, 8, 21, -13, 24, -6, 9, 14, -1, 20, 23, -3, -17, 0, 9, -7, 1, -6, -12, 19, 8, -7, -13, -23, -22, -16, 13, 20, -10, 12, -16, -5, 18, 24, 20, -8, 7, -5, 0, 7, -18, -6, -12, 0, 0, -11, -9, -20, 8, -21, 15, 23, -17, 10, -11, 21, 3, 2, -16, 22, -24, 4, 18, 6, -9, 3, -3, 20, -12, 0, -11, 21, -18, -14, -13, 16, -15, -14, -20, -4, -21, -16, 10, 23, -16, 10, 21, 4, -9, 2, 22, 8, 3, 24, 0, 6, -6, 15, 19, 15, -12, -1, 12, 4, 2, -4, 7, -1, -17, 4, -9, 7, 12, 12, -18, 8, -20, -10, -11, -18, -22, 23, -5, -11, 5, -15, 0, -6, 16, 10, -18, -1, 7, 18, -16, -21, -17, -15, -23, 19, 21, -16, -21, -11, 21, -17, 19, -21, 14, -20, -10, -2, -2, -23, 13, 1, 20, 3, -23, 18, 7, 17, -10, 3, 18, 0, -18, -2, 4, -18, -23, 23, 4, -7, -2, 19, -23, -14, 4, -21, -4, 9, 4, 4, 6, -8, 12, 5, -19, 20, 9, -22, -23, 1, -22, 12, 9, 16, 14, -15, 14, -3, 17, -6, -20, -22, -20, -2, -1, 13, -7, -17, 3, 3, 12, 2, 17, -10, -19, -16, -1, 23, -2, -7, 4, -4, 0, 18, 15, 5, 16, -16, -18, 11, -3, -18, 14, 17, 1, -1, 21}
#define HWNC_WEIGHT {24, -11, 0, 2, 16, -3, 17, -5, 0, -5, 18, 8, -14, -23, -21, -16, -22, 16, 12, -18, -17, -13, -3, 21, -16, -18, 18, -17, 7, -8, -3, -6, 12, -23, 10, 2, -13, -18, -21, 23, 5, -1, -8, -9, -13, -10, 8, 23, 22, -8, -23, 5, -17, 0, -9, 18, -7, -8, 22, 14, 0, -18, -2, -21, 0, 12, -16, -4, 10, 7, -13, 11, 19, 20, 6, -20, 3, 2, 2, -14, -3, -2, -12, -2, -1, 24, 7, 6, 2, 9, 4, 21, -13, 7, 0, 23, -4, 22, -7, 8, 19, 23, 23, -16, 19, -1, 20, 13, -18, -13, -8, 20, -5, 14, -4, 8, 22, 5, 16, 19, 11, -22, 4, 13, -12, -1, 18, -24, -12, -2, 18, -5, -17, 3, 20, 10, -20, -19, -14, 20, 13, -20, 10, -17, 7, 20, 0, 18, 17, -6, -10, 24, 8, 5, 4, -2, -10, 0, 22, -15, 7, -13, 0, 18, -16, -17, 11, 5, -16, -17, 20, -11, -4, 7, -16, -17, 13, 10, -21, -1, 18, 7, -21, -10, 5, 12, 20, 17, -16, 17, -19, 2, 21, 23, -12, -16, -6, -21, 11, -13, 6, -7, 19, -24, -14, 16, -20, 4, 9, -22, 19, -6, 0, -5, -20, 10, 22, 22, -12, -4, 21, 11, 13, -4, -14, -12, 8, -22, -8, -13, -4, -6, 22, -2, -20, -19, 20, 1, 18, -21, 2, 5, -11, 1, 20, 10, 11, -16, -18, 4, 10, -7, -10, 23, 3, 12, 23, 0, -20, -15, 2, -12, -17, 12, -23, -9, -9, -20, -7, -14, 23, 20, 22, 4, 9, 3, 1, 19, 5, 9, -4, -13, -19, -18, 24, 23, -16, -13, 4, -24, 14, 12, 22, 17, -2, -9, 16, -5, -2, -3, -18, 21, -14, -15, -19, 0, -5, 6, 0, 9, 10, 19, -16, 14, -8, 1, -11, -13, -23, 15, 0, 12, 17, 20, 19, 1, 22, -3, 5, 6, -12, -19, 2, -17, -1, -21, 1, -7, -20, 13, 0, 0, -24, -23, -14, -11, -7, 0, 6, -8, -4, -14, 3, 8, -13, -13, 15, 7, 1, 21, -10, 21, -16, 2, 10, 4, -16, 7, 12, 3, 23, -9, -17, 3, -23, 0, 9, -10, -23, -16, -15, 18, -22, -19, 1, -6, -16, 2, -10, -24, 8, -17, -2, 1, -8, -2, -20, 0, 1, -19, 23, -3, -5, 7, -18, 21, 7, 19, 17, -15, -2, 3, -12, 9, 13, -9, 15, -3, -24, -23, -17, -5, 19, 12, -6, 12, 20, -10, 21, 5, 4, 14, -14, -15, -10, -12, -16, 0, 12, -10, -5, -4, 17, -18, -8, -10, 16, -20, -7, 4, -19, -21, 23, 4, -5, -3, 9, -23, 5, 3, 15, -8, 15, 11, -13, 2, -8, 17, -3, 7, -21, -23, 4, 4, 11, -9, 1, -10, 15, -3, 23, 21, -17, 21, -17, 0, -21, 5, 1, -4, -16, -3, -5, 13, -9, 17, 0, 2, 20, 8, -15, -22, -19, -16, -8, -17, -8, 5, 2, 15, 24, 0, -11, -3, 8, 22, -4, 7, -5, -1, -5, 21, -4, -3, -21, 1, -10, 19, 0, 20, 22, 16, 13, 24, -20, -6, 15, 10, -22, -2, -24, 21, 5, 19, 3, 24, -15, 9, -20, 3, 19, -6, -5, -16, 24, -24, 10, 12, 4, -18, 18, 22, 21, 12, 19, -18, -16, 4, 1, -1, 12, -2, 21, -2, -22, 23, 8, 18, 22, 14, -22, -17, 2, -15, 12, 12, -13, 12, -12, -22, 21, 7, -18, 22, -13, -21, -19, -19, 3, -10, 5, 15, 11, -18, 6, 4, 13, -11, 19, -22, -6, 16, -5, -8, 15, 18, -9, -23, -12, 4, 0, -21, -7, 12, -9, 2, 8, 22, -11, 24, 5, 22, -10, -5, -18, -24, -1, 23, -5, 15, -7, -3, 2, 12, -3, -19, -12, 19, 0, -11, 17, -23, -20, -11, 8, 2, 15, -23, 17, 20, 1, -20, -14, -11, -20, 6, -17, 13, -20, 15, 22, 14, -7, -10, 7, 6, -13, 23, -7, -1, -3, -6, -20, 9, -9, 0, -23, -10, 22, -19, -11, 11, 21, 2, -23, 7, 13, -16, 11, 11, -18, 6, -10, -13, -5, -9, 13, 0, -5, -17, 15, 0, 23, 6, 15, 17, 2, 16, -2, 4, 8, -16, 13, 5, -4, 23, -17, 13, -4, 4, 1, -7, -13, 23, -5, -9, -19, 14, 8, 20, 13, -7, -21, -1, 20, 4, 7, 6, -9, 8, 22, -10, -8, 18, 2, -20, -21, -18, 21, 23, 9, -7, 14, -4, -11, -23, 16, 4, 13, 0, -18, 12, 6, -14, 14, -19, -13, 18, -21, -6, 3, -5, 0, 20, -14, 20, 22, -8, 20, -12, 17, -22, -17, 15, 17, 14, 24, 20, 4, 13, 4, -10, -6, 2, 15, -8, -20, 0, -10, -20, 12, 0, -12, -1, 0, -20, 7, 19, -20, -1, 15, 0, 6, 23, 7, 20, 17, -13, 15, -15, 21, 0, 24, -9, 8, 10, -24, 4, -11, 11, 19, 20, 9, 22, -14, 14, -16, -9, 1, 12, -9, -9, 7, -2, -15, 15, 5, 10, -15, 4, 11, -19, -19, 20, -18, -7, -13, 11, -5, -15, -7, 4, 8, -16, 13, 8, 22, -13, -7, -1, 17, 0, -18, 22, -18, 17, -4, 24, 16, 6, 21, -7, 22, -10, 8, -16, -16, -12, 10, 20, -19, -13, 22, 9, -4, -16, 16, 5, 2, -5, 4, 18, 5, -6, -12, 10, 18, -4, 0, -14, -11, -16, 9, 2, 5, -7, -15, -24, 22, 23, -19, -17, -17, -14, 14, -3, -5, -9, 7, -3, 8, -11, 24, -22, 0, 3, 3, -18, -17, 4, -21, -2, -15, 0, -3, 15, 19, -7, 14, 18, 8, 9, 0, -1, -24, -22, 14, -16, -3, 5, 10, -13, 8, -9, -4, -16, 18, -4, 9, 22, 9, 2, 24, -1, 22, 0, -6, 14, 6, -9, -24, 5, -22, -8, 3, 15, -15, -9, 5, -9, 17, 21, -3, 6, 7, 10, -11, 22, -7, -24, -23, -10, 3, -24, -10, 13, 4, -8, -22, 5, -7, 12, 6, 21, -16, -19, -13, 16, 1, -17, 23, -13, 22, 2, 23, 5, -2, 5, 13, -14, -13, -14, 13, 16, -3, -1, -19, 15, 2, 1, 12, 7, -20, -10, -19, 9, -4, 4, -11, 19, 16, 20, 22, -10, -7, 7, 3, -8, 15, 0, 10, 0, 16, -22, -22, -2, 23, -1, 2, -19, -24, -6, -15, 5, 4, 7, -17, -3, 6, -15, 9, -12, 15, 18, -17, 19, 3, 21, 8, -3, 0, 16, -21, -17, -19, -11, 10, 15, -10, 6, -20, -14, -9, 11, -20, -20, -9, -4, -10, 0, 19, 0, 4, -7, -11, -17, 9, 9, -18, 20, -12, 0, 0, 23, -6, -11, -6, -12, 6, -5, 14, 19, -10, -14, 17, 5, -20, -16, -20, -23, -6, 16, 0, 0, -15, -8, -18, -1, 7, -6, 12, 22, -21, 5, -19, 12, -14, -4, 7, 13, -1, 16, 6, 10, 13, 4, 8, 2, -12, 13, 20, -21, -10, -1, -4, -14, -11, -2, 7, -18, -7, 14, 6, -18, -19, 1, 6, 14, -23, 23, 16, -16, 14, -18, -8, -5, -2, 0, -6, -12, 20, 19, 12, 14, 18, -7, 22, 0, -20, -16, 11, 16, 20, 16, -15, 15, 14, 17, -8, -6, 15, -1, 15, 12, 0, -1, -7, 0, 4, -23, 15, 1, -17, 21, -18, -15, -6, 1, -7, -20, 4, 5, 9, 16, -24, -13, -11, 18, 11, -2, -23, -16, 16, 23, -13, 24, 11, -19, -3, -20, -7, -12, -9, -1, 17, -22, -9, -16, 24, -21, 1, -2, 12, -14, -2, 15, 4, -18, -9, -13, 14, -6, 17, -21, 6, -12, 0, 1, -22, -8, -16, -20, -1, -1, 0, -3, 3, -4, 4, 16, 20, -8, -13, 1, -7, -12, -8, 3, 4, -6, 0, -11, -11, -18, 15, 5, 15, 0, 0, 21, 19, -15, -2, 4, -23, -4, -22, -18, -2, -3, -2, -21, -20, 11, -5, -16, -5, -11, -3, -7, 0, 20, 3, 8, -1, 22, -4, 15, 10, -20, -18, 11, 16, -22, 0, -17, -11, 5, 18, 20, 6, 10, 0, 11, -1, 8, 2, 23, 0, 19, 11, 23, -13, 3, -12, -11, -4, -10, -16, 2, -6, 11, -13, 15, -8, -1, 18, -15, -21, -11, -19, -14, 6, -21, -6, -24, -23, -1, 18, 2, 2, -5, -12, 9, 15, -9, 18, 0, 19, -24, 5, 7, -20, -18, 15, -5, -8, 10, 5, -13, -15, -2, -13, 16, 12, -8, 13, -10, -9, 15, 0, 5, 14, -17, 21, -6, -7, -19, 12, -15, -9, 12, -1, -21, 5, -8, 9, 2, 9, -11, -12, -23, 23, -7, -18, -13, 23, -10, -8, 3, -13, 17, 16, 0, -14, 4, 23, 17, -15, 9, -20, -6, -19, 1, -13, -15, 2, -13, 11, 15, 20, 19, -22, -16, -18, -22, 4, -20, -1, 18, 9, 20, -5, 23, 8, 19, 8, -7, 10, 20, 21, 8, -9, -14, 8, 16, -12, -6, 12, 10, -20, -13, -1, 16, 13, 9, 20, 4, -1, -18, -7, 17, 1, 4, 13, 14, 9, -5, -16, 5, 24, 9, -22, 16, 12, 8, 15, -17, 8, -8, 23, -12, -13, 6, -5, -24, -3, 20, 2, -2, 10, -8, -1, 17, -8, 0, -3, 2, 18, -22, -1, -4, 10, 19, 24, -22, -11, 21, -23, -20, 20, 14, -7, 0, -12, -19, -7, -21, -16, -6, 1, 9, 19, -12, -6, 21, -24, 1, 0, -20, 20, 5, -15, -22, -4, -14, -5, -19, 9, -11, 20, 5, -5, 1, -8, -2, 7, 2, 15, -12, -23, -20, 4, 19, -6, -20, 4, 12, -8, -17, 19, -14, -5, -10, -22, 11, -2, -7, -20, -20, -9, -7, 5, -2, 21, -20, -22, 16, -5, 4, 11, -20, 12, 0, 15, 8, 15, 0, -21, 1, 8, -23, 0, -18, 6, 9, 1, -16, 8, -18, -13, 4, -8, 13, -12, -16, -5, -22, 9, 22, 18, -4, -6, 18, -8, 13, -4, -19, 0, -5, -21, -15, -17, -10, 17, 23, 14, -13, -9, -22, -6, -5, 2, -23, -21, -15, 23, -20, 4, -18, -4, 7, 15, -14, 2, -1, 3, 6, 18, 12, -17, 1, 3, 21, -23, -8, 3, -1}

#endif
