#ifndef _TEST_WEIGHTS_H
#define _TEST_WEIGHTS_H

#define CONV_BIAS {19, 20, -6, 16, -14, -1, 22, -4, 12, 24, -10, 10, -9, -6, 18, 7, -21, 23, 17, 13, 2, 11, -7, -8, 12, 3, 23, 0, -1, 14, -11, -21}
#define IM_IN {24, 90, 75, 79, 118, 17, 56, 67, 72, 100, 124, 37, 99, 70, 81, 34, 0, 82, 35, 60, 70, 102, 66, 49, 122, 19, 34, 112, 83, 102, 45, 16, 115, 64, 58, 13, 87, 125, 58, 91, 16, 50, 47, 7, 85, 71, 8, 70, 64, 12, 107, 1, 104, 0, 98, 80, 82, 112, 100, 14, 46, 9, 96, 78, 124, 29, 9, 113, 27, 47, 80, 52, 119, 118, 8, 83, 50, 60, 50, 62, 45, 100, 87, 10, 40, 36, 17, 72, 86, 116, 111, 63, 111, 55, 101, 100, 102, 28, 91, 18, 95, 85, 90, 58, 81, 90, 52, 50, 28, 118, 98, 118, 19, 28, 56, 16, 90, 116, 48, 38, 7, 69, 100, 23, 120, 77, 6, 41, 111, 86, 12, 11, 76, 121, 69, 68, 109, 117, 5, 3, 78, 71, 15, 71, 42, 106, 42, 64, 17, 106, 14, 72, 31, 77, 61, 36, 72, 39, 77, 0, 7, 49, 79, 119, 52, 116, 115, 68, 101, 92, 112, 126, 83, 97, 122, 50, 109, 101, 124, 107, 36, 91, 70, 79, 63, 69, 61, 41, 1, 25, 14, 79, 48, 124, 116, 6, 35, 27, 57, 23, 41, 125, 27, 33, 15, 97, 114, 15, 120, 105, 94, 64, 33, 75, 84, 26, 60, 44, 67, 13, 16, 2, 29, 87, 53, 115, 50, 11, 53, 3, 126, 68, 64, 121, 0, 67, 96, 38, 28, 81, 55, 0, 26, 78, 57, 21, 117, 64, 18, 80, 10, 57, 90, 105, 0, 19, 30, 40, 95, 1, 78, 106, 28, 127, 81, 10, 66, 56, 105, 13, 19, 91, 6, 72, 31, 42, 67, 8, 71, 121, 54, 107, 61, 90, 7, 64, 91, 114, 68, 24, 114, 104, 94, 57, 7, 122, 115, 85, 66, 19, 98, 55, 94, 90, 2, 60, 101, 64, 124, 71, 87, 67, 123, 17, 109, 18, 86, 104, 3, 5, 107, 76, 55, 24, 14, 109, 118, 121, 54, 90, 41, 11, 7, 24, 7, 113, 58, 13, 43, 117, 62, 127, 112, 86, 59, 32, 11, 103, 44, 106, 90, 23, 99, 122, 115, 7, 91, 90, 41, 63, 93, 48, 124, 115, 64, 93, 99, 57, 63, 76, 59, 42, 37, 13, 47, 19, 47, 9, 42, 2, 98, 84, 57, 118, 9, 114, 54, 7, 99, 66, 41, 31, 1, 75, 93, 55, 109, 40, 19, 36, 63, 61, 22, 6, 64, 17, 74, 62, 127, 36, 101, 22, 37, 6, 40, 16, 91, 72, 114, 70, 1, 57, 44, 115, 83, 120, 125, 103, 96, 71, 36, 102, 10, 34, 80, 42, 49, 70, 93, 53, 91, 18, 119, 67, 70, 111, 66, 34, 56, 30, 124, 3, 93, 85, 13, 127, 32, 25, 85, 13, 30, 73, 99, 105, 45, 100, 114, 8, 97, 3, 90, 117, 73, 30, 84, 103, 100, 72, 53, 46, 25, 67, 9, 89, 36, 100, 121, 84, 49, 113, 11, 45, 127, 105, 66, 104, 103, 106, 69, 24, 38, 57, 81, 69, 113, 106, 41, 124, 60, 15, 75, 74, 21, 46, 13, 10, 41, 59, 59, 111, 113, 109, 27, 59, 13, 94, 59, 109, 46, 25, 76, 102, 4, 117, 100, 78, 22, 89, 72, 125, 79, 13, 83, 63, 94, 18, 107, 23, 11, 91, 44, 51, 56, 61, 54, 3, 82, 105, 46, 79, 83, 93, 97, 2, 60, 36, 115, 44, 63, 67, 82, 87, 10, 16, 65, 79, 21, 98, 59, 94, 38, 40, 16, 70, 35, 47, 31, 121, 77, 56, 91, 13, 103, 33, 102, 13, 44, 121, 29, 60, 125, 101, 4, 112, 72, 38, 80, 105, 47, 119, 124, 79, 92, 123, 3, 91, 121, 117, 5, 70, 30, 56, 11, 17, 36, 94, 119, 42, 72, 96, 10, 95, 121, 97, 58, 110, 65, 19, 110, 84, 127, 51, 80, 113, 89, 47, 102, 15, 57, 52, 125, 53, 27, 37, 61, 37, 7, 125, 79, 119, 47, 31, 83, 1, 102, 44, 118, 2, 69, 111, 61, 112, 45, 93, 111, 80, 87, 125, 45, 53, 125, 27, 88, 55, 28, 47, 10, 53, 29, 48, 9, 100, 120, 83, 93, 66, 96, 90, 100, 119, 4, 110, 48, 30, 54, 38, 47, 87, 47, 74, 33, 105, 11, 24, 115, 29, 105, 54, 104, 66, 0, 96, 50, 5, 103, 5, 18, 37, 15, 76, 99, 89, 13, 28, 41, 38, 37, 39, 7, 108, 111, 79, 95, 110, 2, 42, 94, 109, 72, 35, 39, 89, 45, 97, 11, 35, 72, 6, 82, 4, 110, 15, 72, 80, 47, 84, 111, 57, 23, 11, 49, 102, 110, 104, 78, 5, 124, 71, 122, 117, 80, 29, 12, 87, 96, 15, 30, 51, 125, 100, 51, 18, 109, 32, 115, 93, 64, 95, 88, 23, 44, 60, 7, 1, 109, 46, 84, 85, 92, 99, 42, 60, 118, 66, 118, 14, 50, 21, 8, 3, 91, 113, 73, 111, 90, 108, 16, 27, 121, 124, 92, 87, 96, 125, 9, 117, 7, 52, 4, 91, 5, 36, 22, 22, 105, 110, 72, 35, 80, 22, 6, 40, 72, 18, 29, 65, 2, 87, 111, 100, 81, 92, 44, 76, 115, 95, 83, 35, 7, 20, 32, 10, 113, 89, 101, 55, 115, 47, 118, 125, 14, 58, 82, 51, 80, 42, 83, 15, 77, 55, 29, 105, 25, 2, 80, 56, 10, 15, 94, 20, 36, 12, 44, 126, 65, 49, 55, 107, 91, 73, 127, 61, 67, 80, 111, 25, 36, 65, 21, 16, 125, 64, 1, 54, 126, 43, 66, 50, 61, 121, 91, 69, 65, 22, 4, 48, 9, 7, 71, 20, 2, 58, 20, 64, 120, 36, 34, 95, 68, 56, 75, 98, 124, 119, 112, 102, 109, 81, 36, 79, 109, 71, 98, 76, 25, 102, 88, 101, 101, 68, 11, 11, 113, 107, 3, 6, 30, 45, 100, 55, 36, 18, 54, 7, 7, 13, 8, 7, 116, 13, 6, 19, 78, 66, 116, 25, 51, 1, 112, 127, 22, 127, 13, 107, 100, 41, 39, 92, 127, 108, 36, 51, 116, 91, 113, 115, 83, 72, 111, 17, 122, 107, 8, 113, 32, 39, 99, 107, 88, 4, 79, 75, 123, 125, 91, 66, 78, 111, 26, 83, 103, 112, 83, 12, 28, 70, 39, 17, 23, 39, 92, 125, 81, 124, 12, 42, 68, 95, 27, 56, 67, 2, 2, 37, 110, 77, 29, 14, 123, 64, 32, 123, 119, 127, 119, 73, 105, 23, 126, 31, 79, 55, 6, 52, 53, 27, 46, 80, 82, 4, 116, 98, 111, 8, 96, 86, 70, 7, 11, 19, 79, 113, 91, 44, 100, 17, 23, 40, 0, 53, 104, 68, 35, 64, 2, 6, 2, 68, 106, 55, 5, 104, 57, 19, 44, 30, 107, 96, 106, 102, 2, 95, 38, 91, 75, 51, 18, 63, 57, 83, 62, 2, 55, 34, 79, 98, 77, 102, 26, 96, 29, 43, 34, 51, 64, 66, 63, 37, 12, 64, 85, 91, 42, 3, 113, 13, 41, 72, 82, 11, 127, 19, 23, 22, 24, 106, 1, 7, 9, 58, 117, 66, 119, 106, 125, 108, 20, 54, 60, 111, 81, 115, 64, 55, 28, 16, 70, 38, 14, 100, 91, 28, 20, 92, 113, 74, 2, 57, 73, 36, 89, 19, 74, 49, 31, 119, 79, 25, 43, 91, 36, 15, 64, 73, 66, 97, 73, 89, 106, 98, 38, 71, 52, 110, 69, 85, 115, 75, 111, 98, 3, 42, 33, 126, 6, 120, 9, 101, 120, 104, 82, 95, 17, 57, 116, 19, 1, 30, 45, 49, 63, 32, 6, 103, 28, 67, 122, 72, 26, 81, 61, 35, 116, 11, 27, 88, 65, 41, 5, 25, 0, 106, 61, 34, 47, 35, 121, 119, 1, 53, 61, 113, 69, 16, 47, 78, 123, 53, 6, 2, 112, 15, 86, 97, 64, 17, 70, 76, 19, 115, 35, 83, 117, 3, 125, 59, 112, 88, 72, 116, 97, 3, 11, 54, 17, 76, 17, 51, 88, 27, 105, 7, 97, 58, 10, 6, 88, 42, 62, 81, 75, 23, 83, 118, 80, 98, 13, 70, 0, 49, 72, 38, 96, 104, 89, 101, 120, 11, 1, 24, 67, 71, 91, 114, 61, 89, 123, 38, 33, 90, 126, 117, 97, 78, 68, 44, 106, 71, 32, 58, 41, 85, 80, 43, 19, 108, 42, 60, 85, 125, 2, 18, 26, 97, 23, 85, 26, 116, 73, 107, 82, 6, 99, 116, 69, 22, 70, 26, 113, 98, 11, 11, 5, 111, 25, 41, 3, 47, 117, 123, 22, 74, 41, 44, 92, 52, 72, 78, 17, 20, 97, 16, 99, 117, 52, 4, 94, 79, 1, 26, 16, 40, 116, 124, 67, 69, 23, 80, 83, 97, 112, 61, 61, 82, 72, 98, 2, 105, 38, 88, 75, 1, 113, 60, 59, 96, 74, 90, 33, 24, 8, 64, 122, 85, 15, 52, 44, 77, 105, 75, 88, 43, 29, 9, 5, 34, 51, 107, 119, 65, 16, 105, 103, 2, 18, 12, 22, 82, 60, 53, 113, 72, 19, 94, 68, 29, 66, 23, 14, 17, 75, 37, 5, 100, 97, 106, 127, 9, 14, 6, 80, 66, 5, 20, 111, 67, 120, 4, 77, 2, 88, 10, 44, 60, 90, 14, 21, 14, 100, 8, 25, 97, 4, 99, 61, 31, 58, 4, 14, 39, 94, 51, 47, 80, 5, 97, 20, 118, 23, 79, 119, 17, 114, 103, 64, 93, 24, 1, 6, 75, 44, 19, 115, 43, 72, 123, 64, 5, 8, 63, 53, 40, 44, 4, 89, 25, 119, 81, 20, 126, 80, 71, 70, 106, 57, 104, 91, 109, 47, 42, 116, 35, 21, 112, 29, 97, 123, 117, 45, 25, 103, 11, 92, 78, 93, 73, 102, 112, 74, 99, 5, 58, 61, 22, 74, 16, 53, 8, 3, 43, 0, 118, 5, 59, 15, 14, 101, 81, 56, 118, 64, 9, 92, 51, 104, 16, 18, 110, 92, 23, 16, 78, 76, 24, 49, 108, 55, 100, 68, 124, 12, 40, 99, 51, 96, 16, 95, 22, 118, 1, 72, 105, 118, 82, 50, 58, 98, 17, 8, 108, 6, 116, 106, 11, 15, 54, 113, 114, 21, 21, 26, 69, 46, 119, 113, 83, 63, 91, 77, 46, 71, 50, 20, 82, 47, 92, 4, 8, 106, 25, 54, 40, 115, 92, 125, 23, 98, 60, 16, 24, 72, 125, 110, 18, 30, 3, 12, 120, 115, 11, 57, 30, 96, 79, 16, 95, 82, 40, 40, 50, 108, 108, 125, 106, 68, 56, 44, 106, 103, 30, 23, 124, 68, 35, 74, 34, 74, 82, 4, 119, 78, 80, 7, 82, 66, 104, 106, 5, 21, 7, 96, 56, 36, 126, 46, 33, 102, 8, 127, 44, 100, 84, 42, 65, 104, 45, 22, 34, 56, 66, 37, 74, 75, 76, 79, 56, 76, 22, 18, 43, 110, 123, 34, 90, 53, 13, 21, 16, 21, 109, 83, 30, 2, 75, 121, 82, 32, 74, 20, 36, 50, 32, 103, 63, 43, 7, 53, 0, 35, 19, 56, 119, 91, 102, 107, 13, 86, 116, 8, 69, 76, 120, 72, 99, 101, 1, 44, 110, 77, 49, 50, 126, 48, 58, 28, 54, 85, 75, 90, 60, 106, 31, 99, 101, 22, 108, 42, 27, 104, 45, 92, 25, 122, 80, 13, 28, 101, 91, 27, 100, 54, 19, 18, 124, 63, 11, 110, 33, 32, 49, 71, 81, 113, 9, 72, 86, 48, 113, 13, 59, 117, 73, 99, 19, 83, 92, 15, 123, 29, 1, 25, 3, 35, 52, 32, 15, 61, 52, 58, 65, 1, 24, 80, 60, 0, 49, 109, 114, 6, 118, 127, 108, 29, 103, 85, 126, 3, 15, 0, 68, 74, 42, 78, 90, 101, 108, 48, 12, 52, 104, 56, 33, 81, 48, 96, 119, 106, 101, 57, 91, 100, 48, 45, 121, 22, 3, 51, 43, 88, 84, 59, 53, 67, 38, 109, 53, 117, 73, 52, 56, 120, 47, 87, 112, 108, 50, 58, 60, 98, 2, 74, 27, 8, 21, 87, 41, 70, 86, 75, 68, 112, 78, 64, 70, 65, 82, 15, 18, 69, 44, 112, 40, 49, 94, 100, 7, 47, 72, 104, 106, 53, 125, 11, 41, 45, 8, 117, 10, 64, 119, 103, 119, 1, 19, 19, 11, 48, 72, 17, 125, 7, 80, 34, 21, 33, 29, 8, 74, 82, 115, 71, 69, 57, 25, 59, 13, 84, 99, 85, 120, 82, 64, 45, 45, 52, 4, 48, 93, 60, 24, 22, 8, 43, 49, 63, 80, 34, 88, 68, 39, 9, 117, 22, 29, 90, 61, 63, 68, 80, 69, 82, 7, 63, 49, 25, 102, 17, 35, 39, 122, 90, 14, 35, 41, 71, 93, 54, 98, 12, 90, 55, 29, 20, 10, 115, 56, 76, 89, 80, 108, 64, 118, 23, 22, 45, 116, 104, 104, 13, 68, 81, 16, 65, 91, 0, 75, 94, 100, 51, 124, 71, 5, 31, 84, 13, 5, 66, 77, 31, 101, 9, 5, 32, 55, 90, 67, 107, 106, 7, 105, 119, 17, 50, 60, 18, 21, 65, 84, 58, 33, 13, 6, 12, 96, 49, 102, 58, 71, 18, 88, 106, 103, 45, 80, 112, 98, 12, 63, 104, 77, 117, 118, 50, 52, 26, 42, 25, 76, 111, 82, 4, 127, 51, 37, 82, 78, 5, 92, 55, 12, 65, 75, 38, 106, 121, 7, 79, 70, 74, 124, 115, 92, 38, 17, 96, 108, 0, 89, 70, 78, 14, 5, 69, 36, 11, 99, 33, 126, 105, 8, 29, 122, 0, 16, 78, 34, 34, 37, 4, 11, 105, 59, 6, 48, 69, 55, 77, 26, 90, 79, 29, 118, 56, 83, 115, 25, 2, 41, 56, 38, 23, 118, 61, 99, 85, 66, 81, 10, 122, 70, 73, 97, 72, 15, 102, 97, 127, 42, 80, 127, 48, 36, 88, 87, 30, 47, 90, 54, 51, 14, 10, 118, 34, 94, 31, 3, 37, 84, 51, 45, 61, 0, 70, 4, 85, 30, 14, 111, 20, 114, 48, 47, 114, 35, 111, 117, 12, 63, 39, 103, 42, 38, 61, 74, 84, 112, 5, 76, 19, 120, 125, 28, 114, 78, 93, 112, 19, 8, 45, 106, 104, 71, 104, 110, 83, 11, 4, 100, 113, 8, 0, 2, 60, 91, 110, 26, 4, 115, 28, 105, 108, 55, 91, 83, 29, 63, 42, 106, 1, 69, 114, 73, 30, 104, 18, 111, 123, 14, 22, 84, 24, 47, 5, 95, 97, 112, 27, 39, 120, 14, 78, 124, 90, 28, 95, 108, 111, 119, 61, 82, 11, 11, 60, 106, 104, 29, 93, 38, 106, 123, 25, 12, 14, 75, 26, 33, 61, 30, 25, 110, 76, 18, 101, 80, 34, 105, 125, 10, 91, 22, 25, 97, 102, 121, 73, 19, 124, 125, 46, 0, 72, 122, 23, 14, 16, 118, 40, 34, 87, 74, 103, 104, 88, 123, 126, 60, 11, 10, 59, 74, 73, 20, 51, 110, 117, 115, 31, 92, 10, 75, 71, 23, 124, 23, 6, 24, 90, 38, 37, 74, 24, 63, 59, 1, 83, 42, 16, 77, 71, 14, 90, 12, 93, 40, 101, 30, 57, 65, 115, 38, 24, 42, 55, 82, 111, 6, 119, 30, 122, 25, 48, 22, 116, 69, 9, 52, 66, 119, 65, 52, 106, 77, 49, 124, 102, 43, 105, 25, 51, 4, 36, 58, 72, 106, 49, 18, 115, 84, 74, 93, 112, 10, 34, 73, 58, 60, 54, 109, 10, 33, 41, 1, 110, 43, 71, 22, 117, 122, 74, 81, 4, 93, 21, 8, 93, 111, 74, 51, 12, 34, 15, 75, 61, 97, 80, 40, 68, 42, 111, 92, 20, 52, 76, 82, 13, 54, 49, 61, 119, 104, 125, 127, 29, 8, 70, 85, 109, 93, 73, 126, 3, 10, 27, 110, 5, 5, 127, 109, 125, 41, 18, 58, 108, 13, 7, 78, 13, 113, 56, 37, 21, 67, 67, 100, 99, 110, 17, 32, 111, 31, 59, 45, 117, 108, 12, 40, 86, 56, 48, 47, 121, 19, 17, 5, 57, 51, 39, 121, 119, 100, 81, 86, 101, 74, 53, 109, 14, 72, 69, 82, 5, 75, 53, 127, 17, 115, 79, 4, 100, 99, 19, 118, 119, 96, 43, 43, 47, 92, 103, 36, 105, 111, 30, 59, 85, 111, 43, 75, 46, 117, 114, 113, 120, 57, 121, 85, 31, 111, 17, 104, 47, 118, 89, 82, 100, 52, 55, 58, 0, 93, 1, 122, 89, 98, 77, 55, 42, 0, 51, 69, 63, 76, 93, 76, 83, 113, 38, 14, 7, 59, 90, 33, 63, 46, 68, 74, 54, 63, 111, 40, 119, 106, 72, 7, 99, 4, 122, 70, 125, 43, 78, 124, 72, 93, 36, 88, 72, 84, 63, 99, 99, 2, 126, 121, 107, 101, 85, 97, 78, 57, 43, 20, 107, 61, 60, 105, 48, 36, 119, 60, 19, 89, 90, 99, 102, 82, 7, 122, 53, 10, 49, 21, 85, 93, 70, 66, 16, 42, 57, 26, 108, 39, 113, 19, 2, 89, 21, 37, 90, 7, 34, 47, 123, 4, 74, 70, 102, 10, 40, 42, 76, 17, 114, 22, 54, 103, 53, 122, 123, 30, 48, 122, 16, 120, 75, 114, 104, 39, 116, 71, 117, 80, 120, 6, 20, 50, 28, 93, 118, 46, 126, 61, 52, 99, 6, 120, 125, 2, 74, 103, 26, 23, 53, 3, 76, 59, 56, 119, 96, 39, 17, 103, 19, 125, 18, 102, 19, 10, 84, 105, 45, 80, 86, 124, 106, 51, 88, 112, 27, 2, 77, 99, 27, 36, 108, 92, 85, 67, 86, 105, 52, 4, 123, 2, 45, 4, 19, 96, 95, 102, 110, 82, 53, 122, 86, 43, 112, 108, 38, 110, 85, 91, 91, 97, 127, 84, 68, 70, 49, 82, 113, 22, 69, 21, 95, 91, 113, 98, 7, 89, 20, 57, 54, 0, 98, 110, 66, 106, 30, 97, 8, 72, 56, 120, 3, 113, 18, 48, 67, 83, 46, 113, 14, 11, 57, 95, 5, 87, 70, 43, 7, 7, 45, 94, 109, 127, 86, 81, 120, 1, 54, 16, 86, 11, 66, 101, 4, 61, 106, 35, 51, 127, 47, 119, 72, 113, 65, 110, 5, 103, 11, 69, 112, 21, 41, 97, 42, 32, 59, 122, 81, 9, 13, 26, 60, 63, 7, 25, 126, 93, 26, 78, 21, 22, 71, 18, 45, 30, 53, 116, 59, 36, 55, 60, 72, 22, 72, 64, 96, 52, 14, 6, 22, 60, 10, 19, 18, 4, 95, 40, 59, 62, 80, 77, 93, 114, 23, 54, 74, 66, 92, 93}
#define NHWC_WEIGHT {-23, -8, -12, -4, 13, 11, -11, 3, 4, -6, 13, -9, -21, 15, -12, 9, -10, 6, -22, 8, 22, -1, -10, 11, 8, 7, -2, -1, 16, 10, 14, -3, -3, -17, 22, -21, 8, -20, 18, -8, -4, 15, 14, -24, 12, -8, 2, 19, 1, 6, 9, 8, -9, 13, 20, -18, -24, -4, -7, 21, -19, -5, 13, -12, 14, -11, -3, -8, -15, -2, -10, 0, 0, -3, 14, 14, -6, -17, 7, -6, -9, 10, 1, 1, -15, 6, 7, -2, -20, 10, -18, -13, -2, 22, 11, -6, 13, -18, 18, -22, -5, 24, -13, 10, 11, 8, 12, -10, -21, -7, -20, -24, 11, -21, 0, -1, 18, -9, -23, -8, -6, 8, 14, -3, 23, 2, 23, -19, 6, 23, -5, -16, -2, 5, -5, 16, 11, 16, 11, -20, -15, -7, -3, 7, 3, 23, 4, 18, 8, 4, -21, -9, 22, 15, -5, 13, -7, 19, 16, -5, 9, 10, 10, -18, -21, -4, 24, 19, -21, 18, 0, -20, 11, 12, -15, 24, -13, -15, -13, -2, 11, -14, 3, 7, -14, -6, -7, -1, 23, -11, -6, 9, 7, 19, -12, -16, -5, 0, -2, 17, 8, -6, -10, -6, 10, 20, 4, 17, 24, 14, 5, 16, -22, -2, 14, -22, -14, 21, 11, 3, 6, -22, -4, 24, 17, 5, -22, -4, -5, -23, 18, -16, 8, -14, 3, -22, -23, 16, -20, -16, -14, 12, -3, -24, 15, -13, -1, 22, -16, -12, -8, -4, -5, 2, 4, 0, 13, -12, 1, -1, 0, -24, -20, -10, 12, 11, -9, -15, 11, -3, -9, 18, 9, 18, -5, -1, 6, 21, -12, 22, 3, -7, 22, -5, -1, 4, -16, 15, -10, 18, -1, 14, 3, -6, 0, 8, -3, 4, 11, 15, 19, -6, 5, 18, 9, 12, -1, 1, 0, 3, -9, 9, 22, -1, 7, 10, 23, 21, -2, 7, 13, 14, -20, -10, 12, 1, 10, -1, 1, 18, 16, -21, 10, -8, 23, -4, -7, 23, -20, 22, -16, -11, 4, 6, -14, 3, 20, 0, 2, 4, -17, 15, -3, 7, 4, -4, 21, -10, -5, 16, -14, 9, 24, 8, -15, -19, -5, 0, -21, 4, -10, 7, 2, -23, 12, 3, 6, 10, -16, 11, -4, 19, 0, -7, -21, -15, -21, 6, 6, 2, -9, 21, 6, -8, 10, -22, 19, -22, 4, 21, -5, 7, 9, 7, 9, 16, 0, -4, -14, -11, -6, 8, -14, 4, 2, -5, -13, -7, 12, 18, -1, -1, -6, 24, -5, -8, 0, 10, 22, -6, 13, -19, -6, -20, -9, 22, -15, 4, -11, -19, 5, -5, -24, 24, 23, -6, 0, -8, 2, -19, 11, -21, -16, 10, -22, -22, 4, 1, -4, 2, -6, -11, 8, 17, -5, 4, -23, -6, 5, 7, 2, 3, -13, -11, -2, 13, 11, -11, 19, 14, 5, 17, -9, 3, 9, -7, -17, 13, -14, -13, 15, 5, -12, 10, 13, 17, 19, 9, -21, 15, 13, 7, -3, -3, 22, 18, 8, -16, -12, 3, -21, 10, 20, 14, 7, -12, -17, 10, -12, 9, 1, -18, 13, 0, 20, 6, 10, -8, -12, 17, -6, 23, -11, 0, -17, 7, -16, -20, -9, 15, -7, -10, 23, 13, 8, -17, 7, -18, 11, -24, 3, -22, -22, -3, 4, -24, 16, -20, 22, 1, 11, 22, 0, 22, 8, -2, -11, 22, -8, 16, -22, 20, 16, 11, -21, 14, 4, -8, -21, -5, 10, 8, -3, 18, 0, 9, -18, 3, -4, -17, -9, -23, 14, 23, -1, -6, -3, -16, 2, 5, 12, -13, -12, 0, -24, -21, -15, 0, 0, -10, 23, -1, -15, -18, 17, 4, 4, 9, 5, -12, 14, -15, 5, -2, -23, 24, -11, -14, -5, -18, -19, 20, -20, 0, 22, -8, -7, 11, 6, -2, -6, 0, -6, 6, 0, -4, -16, 10, 7, 2, 20, 16, -19, 5, -5, -8, 14, 5, -9, -14, 0, 21, 15, -8, -20, 0, -16, -5, -2, -6, 8, -11, -23, 6, 9, 12, 0, 13, -18, 10, -23, -19, -17, 22, 9, 20, -5, -21, -3, -8, -23, 2, 0, 17, -23, -20, 7, 1, 7, 1, -15, 20, -10, -9, -1, -7, 24, -1, -20, 0, 10, 6, 10, 15, 18, -18, 21, 20, -20, -7, 7, 19, -6, 11, -10, -19, -18, -13, -12, -4, -13, 3, -12, -24, -12, 0, 0, 14, -5, 2, -17, 14, 21, -20, -21, -16, 2, 0, -3, -14, -9, 19, 7, 1, 23, -10, -17, -14, 9, -9, 20, 12, -16, -20, -9, -17, -11, -20, 12, 23, -16, -2, 10, 15, -10, -15, 4, -24, -16, 10, 18, -12, 12, -15, -16, 1, -18, 1, -6, -17, -21, -3, 24, 11, 13, 0, 17, -12, 1, -10, -16, -24, 17, 2, 4, 19, 5, -22, -22, -13, -10, -3, 18, -22, -2, -15, 13, -5, -12, -12, 3, -9, 11, -7, -10, -20, 19, 1, -16, 2, 11, 0, 12, -18, 24, 0, -17, 14, -14, 6, 11, -3, 10, 5, -15, 3, 10, -14, 12, 2, -15, 9, -8, 22, 7, -3, 24, 23, -6, 13, -20, -10, -5, 2}
#define HWNC_WEIGHT {-23, -1, -12, 10, 20, 10, -24, 1, -8, 16, -18, 1, -21, 16, -20, 16, 10, -11, -21, 9, -7, 11, -18, -6, -14, -24, 11, -13, -9, 4, 9, 15, 21, 15, 18, 11, 12, 15, 10, 7, -16, 16, -4, -4, 1, -3, 11, 0, -6, 2, -9, -11, -17, 14, -14, -12, -20, -6, 13, 7, -7, 22, 23, 16, -1, -15, -3, -2, -10, -8, -6, 5, 7, 12, 20, 13, -10, -4, -1, 3, 2, 0, -9, -13, -17, -15, 9, 1, -10, 14, 18, 6, -14, -16, -3, -14, -4, 14, 11, -3, -4, -15, 21, 7, 13, -3, -7, 6, -24, 11, -21, -15, -4, 7, 19, -12, 11, -20, 24, 19, 3, -1, -22, -16, 18, 19, -1, 5, 6, 22, -5, -6, -1, 4, 18, 21, 19, -14, -7, -6, 1, -4, 0, -11, 22, 8, 4, -5, -13, -17, 5, -12, -15, 17, 15, 10, 13, -22, -17, 16, -16, -23, 5, -11, 8, 20, 2, 24, 16, -18, 5, -23, -7, -12, -1, -12, -19, 10, 24, -24, -9, -18, 12, -6, -22, 11, -15, 10, 20, 1, -2, -3, -11, -17, 4, -21, -19, -2, 13, 10, 3, 22, -5, -20, 0, -7, 18, 7, -21, -16, 0, 0, -1, -3, 18, -5, -4, -12, 17, -4, 6, 18, -12, 12, 24, -8, 21, 9, 16, -10, 10, 16, -21, 8, -21, 4, -21, -5, -15, -14, -11, 4, 5, -6, -12, 9, 13, -18, -19, -23, 10, 1, 7, 11, 11, 14, 12, -14, -12, -18, -18, -21, -13, -5, -5, -19, 14, 22, -20, 0, 10, 14, -8, -17, 0, 0, -16, -17, -9, -3, 13, 5, -12, 3, -20, -21, -5, -15, -6, 8, -9, 18, -12, -18, -11, -2, 13, -20, 14, -13, -9, 3, -8, 4, -20, -2, 12, 8, -23, 23, 11, 17, 5, -5, -4, 4, 22, -1, -7, 0, -22, 2, 3, 1, -8, -14, -4, 24, 6, 2, 2, -13, 23, 9, 6, -5, -5, 5, 24, 2, 17, 13, 9, 20, -24, 7, 19, 0, -24, 4, -22, -21, 0, -19, -21, -20, 3, -8, -24, 20, 5, 9, -14, -5, 6, -5, 15, -17, -9, 20, 10, 2, -17, 24, -20, 13, -12, 10, -9, 12, -11, 11, 3, -14, -21, -8, -12, 15, -3, 22, -15, -6, 15, -4, -8, 11, -6, 18, 14, 4, -15, -6, -13, -6, 8, 8, 24, -10, -5, 0, 18, -12, 22, 3, -1, 9, -23, 13, -5, -9, -7, 8, -20, -19, -9, -7, 6, 18, 23, -15, 21, 12, 23, 3, 0, -11, -21, 6, 13, -8, -6, -13, 15, 10, -22, -5, 4, 8, -15, 0, 0, -8, -3, 10, 0, 22, 0, -21, 15, -8, 18, 14, 21, -20, 21, -3, -18, 21, 12, 0, -16, -12, 11, 2, -10, 9, 23, 17, -7, -15, 9, 14, 6, 12, -2, 13, 0, 18, -10, -24, -10, -18, -3, -21, 2, 22, -15, 10, -2, 4, 23, -9, -13, 20, -16, 1, -14, 0, 4, 22, 15, 7, 8, -1, -16, -1, 22, -5, -11, -21, -8, -1, -22, -6, -16, 0, 10, -1, -8, -2, -19, 11, 7, -12, -3, -6, 2, 13, -3, 17, -24, -3, -20, 0, -10, -7, -1, 6, 16, 18, 23, 11, -8, -23, 0, 0, 20, -21, -7, 2, -20, 2, -20, -16, -2, 1, 15, -16, -20, -8, 1, 7, 10, -10, 19, 22, -22, -8, 22, 19, 0, -22, 14, 24, 8, 2, -3, -5, 23, 15, 6, 13, 11, 17, 3, 14, -19, -5, -14, 24, 3, -24, -23, -10, -10, 10, -1, 21, -22, -20, 18, 23, 4, 4, -14, 7, 19, 24, 4, -8, 6, -10, -22, -5, 11, -11, -16, 14, 22, 23, 8, 0, -21, 19, 18, -11, 22, 9, 11, 3, -15, -2, 17, 0, 1, -18, -18, -6, -16, 17, -2, -20, 7, 0, -6, -14, -5, -23, 19, -3, -10, -24, 4, 2, -16, -3, 11, 23, -15, 17, 2, 24, -1, 1, 11, 9, 14, -13, -17, 11, -10, 6, -6, 10, 23, -7, -16, 16, 7, 5, -6, -22, -5, 19, -14, 16, 16, 12, -16, -9, 14, -2, -6, 13, -20, 11, 3, 7, 3, 2, 0, 12, 21, 0, 7, 22, 20, -23, -5, 10, 10, 5, -22, -9, -16, -17, 3, -16, -22, 17, -12, 7, 22, -4, 22, -9, 4, -6, 9, 0, 0, -17, 4, 6, -6, 7, -11, 7, 11, -9, -19, 7, 8, 1, -10, 19, -24, 4, 10, 5, 0, -6, -18, -20, -16, 19, 12, 13, 8, 8, -2, 13, 7, 8, -9, -10, 7, -9, -6, 12, -2, -5, -5, 10, -7, -2, 23, -22, 5, 9, -1, 14, -14, -15, -3, -3, 0, 14, -3, -10, 12, 11, 8, -20, 2, 3, -17, 10, 9, -6, 9, -19, 4, 6, 7, 13, 4, 3, -4, -7, -21, -20, 20, 15, 1, 9, 10, -9, 8, -23, -11, 23, 5, -4, 14, 10, -2, 14, -12, -16, -23, 1, 9, 20, -18, 1, -12, -10, 6, -15, -13, 23, 18, -22, 12, -13, 24, -10, -17, 2, -12, -22, 0, -5}

#endif
